<?xml version="1.0"?>
<opencv_storage>
<cascade>
  <stageType>BOOST</stageType>
  <featureType>HAAR</featureType>
  <height>24</height>
  <width>36</width>
  <stageParams>
    <boostType>GAB</boostType>
    <minHitRate>9.9500000476837158e-01</minHitRate>
    <maxFalseAlarm>5.0000000000000000e-01</maxFalseAlarm>
    <weightTrimRate>9.4999998807907104e-01</weightTrimRate>
    <maxDepth>1</maxDepth>
    <maxWeakCount>100</maxWeakCount></stageParams>
  <featureParams>
    <maxCatCount>0</maxCatCount>
    <featSize>1</featSize>
    <mode>BASIC</mode></featureParams>
  <stageNum>15</stageNum>
  <stages>
    <!-- stage 0 -->
    <_>
      <maxWeakCount>6</maxWeakCount>
      <stageThreshold>-1.0931150913238525e+00</stageThreshold>
      <weakClassifiers>
        <_>
          <internalNodes>
            0 -1 36 6.3699647784233093e-02</internalNodes>
          <leafValues>
            -6.9193154573440552e-01 6.4341086149215698e-01</leafValues></_>
        <_>
          <internalNodes>
            0 -1 75 -3.4014590084552765e-02</internalNodes>
          <leafValues>
            6.0552781820297241e-01 -5.0017482042312622e-01</leafValues></_>
        <_>
          <internalNodes>
            0 -1 49 4.8477877862751484e-03</internalNodes>
          <leafValues>
            -3.8783860206604004e-01 7.0243340730667114e-01</leafValues></_>
        <_>
          <internalNodes>
            0 -1 17 2.8863043553428724e-05</internalNodes>
          <leafValues>
            4.1944682598114014e-01 -7.1673065423965454e-01</leafValues></_>
        <_>
          <internalNodes>
            0 -1 61 -1.3551213778555393e-03</internalNodes>
          <leafValues>
            5.4808878898620605e-01 -4.1928264498710632e-01</leafValues></_>
        <_>
          <internalNodes>
            0 -1 54 -1.8986861687153578e-03</internalNodes>
          <leafValues>
            5.1714050769805908e-01 -4.1171109676361084e-01</leafValues></_></weakClassifiers></_>
    <!-- stage 1 -->
    <_>
      <maxWeakCount>5</maxWeakCount>
      <stageThreshold>-8.9308112859725952e-01</stageThreshold>
      <weakClassifiers>
        <_>
          <internalNodes>
            0 -1 1 -3.7522923946380615e-01</internalNodes>
          <leafValues>
            7.4137932062149048e-01 -6.7772513628005981e-01</leafValues></_>
        <_>
          <internalNodes>
            0 -1 10 -2.9343016445636749e-02</internalNodes>
          <leafValues>
            7.4088340997695923e-01 -4.2185357213020325e-01</leafValues></_>
        <_>
          <internalNodes>
            0 -1 11 -4.8280064016580582e-02</internalNodes>
          <leafValues>
            6.5015506744384766e-01 -3.8366401195526123e-01</leafValues></_>
        <_>
          <internalNodes>
            0 -1 12 2.1221796050667763e-02</internalNodes>
          <leafValues>
            -2.2547084093093872e-01 8.5415238142013550e-01</leafValues></_>
        <_>
          <internalNodes>
            0 -1 22 2.3122251033782959e-02</internalNodes>
          <leafValues>
            -2.1818666160106659e-01 8.3171540498733521e-01</leafValues></_></weakClassifiers></_>
    <!-- stage 2 -->
    <_>
      <maxWeakCount>9</maxWeakCount>
      <stageThreshold>-1.4797486066818237e+00</stageThreshold>
      <weakClassifiers>
        <_>
          <internalNodes>
            0 -1 65 9.6308670938014984e-02</internalNodes>
          <leafValues>
            -6.5989845991134644e-01 4.1666665673255920e-01</leafValues></_>
        <_>
          <internalNodes>
            0 -1 87 -1.0182599908148404e-05</internalNodes>
          <leafValues>
            -7.6190984249114990e-01 2.3042184114456177e-01</leafValues></_>
        <_>
          <internalNodes>
            0 -1 101 -1.0963012464344501e-03</internalNodes>
          <leafValues>
            -7.2800499200820923e-01 2.2157596051692963e-01</leafValues></_>
        <_>
          <internalNodes>
            0 -1 93 -5.3937209304422140e-04</internalNodes>
          <leafValues>
            -6.2956994771957397e-01 2.9557976126670837e-01</leafValues></_>
        <_>
          <internalNodes>
            0 -1 58 -7.8165426850318909e-02</internalNodes>
          <leafValues>
            6.3520759344100952e-01 -2.6506116986274719e-01</leafValues></_>
        <_>
          <internalNodes>
            0 -1 16 1.5073384565766901e-04</internalNodes>
          <leafValues>
            3.2624444365501404e-01 -5.2088779211044312e-01</leafValues></_>
        <_>
          <internalNodes>
            0 -1 34 -9.5382649451494217e-03</internalNodes>
          <leafValues>
            6.7642229795455933e-01 -3.0912750959396362e-01</leafValues></_>
        <_>
          <internalNodes>
            0 -1 83 6.4395695517305285e-05</internalNodes>
          <leafValues>
            2.7481192350387573e-01 -7.7312129735946655e-01</leafValues></_>
        <_>
          <internalNodes>
            0 -1 2 -4.7346969950012863e-05</internalNodes>
          <leafValues>
            -4.8844274878501892e-01 2.9448065161705017e-01</leafValues></_></weakClassifiers></_>
    <!-- stage 3 -->
    <_>
      <maxWeakCount>7</maxWeakCount>
      <stageThreshold>-1.1040546894073486e+00</stageThreshold>
      <weakClassifiers>
        <_>
          <internalNodes>
            0 -1 71 2.0470647141337395e-03</internalNodes>
          <leafValues>
            -5.4048138856887817e-01 5.8024692535400391e-01</leafValues></_>
        <_>
          <internalNodes>
            0 -1 4 2.4645090888952836e-05</internalNodes>
          <leafValues>
            2.7748677134513855e-01 -7.0058870315551758e-01</leafValues></_>
        <_>
          <internalNodes>
            0 -1 45 1.8234652816317976e-04</internalNodes>
          <leafValues>
            2.7485793828964233e-01 -6.5189403295516968e-01</leafValues></_>
        <_>
          <internalNodes>
            0 -1 57 -1.1054189235437661e-04</internalNodes>
          <leafValues>
            -6.2362289428710938e-01 3.0630078911781311e-01</leafValues></_>
        <_>
          <internalNodes>
            0 -1 31 -2.8668049722909927e-02</internalNodes>
          <leafValues>
            6.6516572237014771e-01 -2.8409036993980408e-01</leafValues></_>
        <_>
          <internalNodes>
            0 -1 47 -1.9253281061537564e-04</internalNodes>
          <leafValues>
            5.4582422971725464e-01 -3.4302413463592529e-01</leafValues></_>
        <_>
          <internalNodes>
            0 -1 81 -2.6290781534044072e-05</internalNodes>
          <leafValues>
            -7.6628488302230835e-01 2.9105132818222046e-01</leafValues></_></weakClassifiers></_>
    <!-- stage 4 -->
    <_>
      <maxWeakCount>7</maxWeakCount>
      <stageThreshold>-1.0283572673797607e+00</stageThreshold>
      <weakClassifiers>
        <_>
          <internalNodes>
            0 -1 115 1.7659209668636322e-02</internalNodes>
          <leafValues>
            -6.6666668653488159e-01 3.2499998807907104e-01</leafValues></_>
        <_>
          <internalNodes>
            0 -1 59 -5.0115175545215607e-02</internalNodes>
          <leafValues>
            4.3466743826866150e-01 -4.4788920879364014e-01</leafValues></_>
        <_>
          <internalNodes>
            0 -1 103 1.7157379537820816e-02</internalNodes>
          <leafValues>
            -2.3738893866539001e-01 7.7064162492752075e-01</leafValues></_>
        <_>
          <internalNodes>
            0 -1 52 -2.4392586201429367e-03</internalNodes>
          <leafValues>
            7.8880625963211060e-01 -1.9886064529418945e-01</leafValues></_>
        <_>
          <internalNodes>
            0 -1 86 7.3393140919506550e-03</internalNodes>
          <leafValues>
            -2.8396508097648621e-01 5.8279186487197876e-01</leafValues></_>
        <_>
          <internalNodes>
            0 -1 89 2.5219791568815708e-03</internalNodes>
          <leafValues>
            -3.2260870933532715e-01 5.4882562160491943e-01</leafValues></_>
        <_>
          <internalNodes>
            0 -1 26 -1.4813992311246693e-04</internalNodes>
          <leafValues>
            -6.2496900558471680e-01 3.1633293628692627e-01</leafValues></_></weakClassifiers></_>
    <!-- stage 5 -->
    <_>
      <maxWeakCount>7</maxWeakCount>
      <stageThreshold>-1.0979233980178833e+00</stageThreshold>
      <weakClassifiers>
        <_>
          <internalNodes>
            0 -1 8 -1.7082840204238892e-02</internalNodes>
          <leafValues>
            1.3170731067657471e-01 -6.8168169260025024e-01</leafValues></_>
        <_>
          <internalNodes>
            0 -1 122 -5.5043543397914618e-05</internalNodes>
          <leafValues>
            -7.3580366373062134e-01 1.8346858024597168e-01</leafValues></_>
        <_>
          <internalNodes>
            0 -1 28 -1.4435552293434739e-04</internalNodes>
          <leafValues>
            -6.1913067102432251e-01 2.2226412594318390e-01</leafValues></_>
        <_>
          <internalNodes>
            0 -1 32 2.1079924772493541e-04</internalNodes>
          <leafValues>
            2.1289128065109253e-01 -7.3361194133758545e-01</leafValues></_>
        <_>
          <internalNodes>
            0 -1 124 7.6278806773188990e-06</internalNodes>
          <leafValues>
            2.1546842157840729e-01 -5.5875653028488159e-01</leafValues></_>
        <_>
          <internalNodes>
            0 -1 41 4.1511096060276031e-03</internalNodes>
          <leafValues>
            -4.9675598740577698e-01 2.7924767136573792e-01</leafValues></_>
        <_>
          <internalNodes>
            0 -1 15 3.9208367525134236e-05</internalNodes>
          <leafValues>
            2.9702955484390259e-01 -5.6041753292083740e-01</leafValues></_></weakClassifiers></_>
    <!-- stage 6 -->
    <_>
      <maxWeakCount>9</maxWeakCount>
      <stageThreshold>-1.5133485794067383e+00</stageThreshold>
      <weakClassifiers>
        <_>
          <internalNodes>
            0 -1 107 1.7939206212759018e-02</internalNodes>
          <leafValues>
            -6.9523811340332031e-01 8.5201792418956757e-02</leafValues></_>
        <_>
          <internalNodes>
            0 -1 126 1.0664071887731552e-02</internalNodes>
          <leafValues>
            1.2365804612636566e-01 -7.7911931276321411e-01</leafValues></_>
        <_>
          <internalNodes>
            0 -1 117 -7.3260843753814697e-02</internalNodes>
          <leafValues>
            -6.7220044136047363e-01 2.8760576248168945e-01</leafValues></_>
        <_>
          <internalNodes>
            0 -1 6 -4.2915144003927708e-03</internalNodes>
          <leafValues>
            3.0193769931793213e-01 -4.2640870809555054e-01</leafValues></_>
        <_>
          <internalNodes>
            0 -1 39 -4.8583373427391052e-05</internalNodes>
          <leafValues>
            -5.8808380365371704e-01 2.8218454122543335e-01</leafValues></_>
        <_>
          <internalNodes>
            0 -1 109 -2.5082440697588027e-04</internalNodes>
          <leafValues>
            -7.4179571866989136e-01 1.9248232245445251e-01</leafValues></_>
        <_>
          <internalNodes>
            0 -1 99 -2.0349532132968307e-04</internalNodes>
          <leafValues>
            -5.9345448017120361e-01 2.8616538643836975e-01</leafValues></_>
        <_>
          <internalNodes>
            0 -1 66 -2.7759891236200929e-04</internalNodes>
          <leafValues>
            5.7239508628845215e-01 -3.3220261335372925e-01</leafValues></_>
        <_>
          <internalNodes>
            0 -1 78 1.4982658904045820e-03</internalNodes>
          <leafValues>
            -2.7178904414176941e-01 6.0664772987365723e-01</leafValues></_></weakClassifiers></_>
    <!-- stage 7 -->
    <_>
      <maxWeakCount>9</maxWeakCount>
      <stageThreshold>-1.2563827037811279e+00</stageThreshold>
      <weakClassifiers>
        <_>
          <internalNodes>
            0 -1 3 -2.8934121131896973e-01</internalNodes>
          <leafValues>
            3.6842104792594910e-01 -6.1481481790542603e-01</leafValues></_>
        <_>
          <internalNodes>
            0 -1 100 -1.3762458693236113e-03</internalNodes>
          <leafValues>
            2.8613856434822083e-01 -5.3215026855468750e-01</leafValues></_>
        <_>
          <internalNodes>
            0 -1 92 -6.0416503401938826e-05</internalNodes>
          <leafValues>
            4.2245361208915710e-01 -3.4993147850036621e-01</leafValues></_>
        <_>
          <internalNodes>
            0 -1 56 1.3277939520776272e-02</internalNodes>
          <leafValues>
            -2.6063436269760132e-01 5.3523164987564087e-01</leafValues></_>
        <_>
          <internalNodes>
            0 -1 84 -4.9878377467393875e-04</internalNodes>
          <leafValues>
            4.2051434516906738e-01 -3.7552833557128906e-01</leafValues></_>
        <_>
          <internalNodes>
            0 -1 9 -7.3943838477134705e-02</internalNodes>
          <leafValues>
            6.9957667589187622e-01 -1.7758907377719879e-01</leafValues></_>
        <_>
          <internalNodes>
            0 -1 62 -2.2370104488800280e-05</internalNodes>
          <leafValues>
            -6.4070326089859009e-01 2.4760279059410095e-01</leafValues></_>
        <_>
          <internalNodes>
            0 -1 102 2.1250679856166244e-04</internalNodes>
          <leafValues>
            -3.7964281439781189e-01 4.1204258799552917e-01</leafValues></_>
        <_>
          <internalNodes>
            0 -1 35 6.0930622566957027e-05</internalNodes>
          <leafValues>
            -3.6662453413009644e-01 3.9901846647262573e-01</leafValues></_></weakClassifiers></_>
    <!-- stage 8 -->
    <_>
      <maxWeakCount>11</maxWeakCount>
      <stageThreshold>-1.5731143951416016e+00</stageThreshold>
      <weakClassifiers>
        <_>
          <internalNodes>
            0 -1 69 -4.7346036881208420e-03</internalNodes>
          <leafValues>
            3.6363637447357178e-01 -5.1555556058883667e-01</leafValues></_>
        <_>
          <internalNodes>
            0 -1 44 -7.9998899309430271e-06</internalNodes>
          <leafValues>
            -6.0319942235946655e-01 2.2716252505779266e-01</leafValues></_>
        <_>
          <internalNodes>
            0 -1 14 -5.7264867791673169e-05</internalNodes>
          <leafValues>
            -5.7506650686264038e-01 2.2526016831398010e-01</leafValues></_>
        <_>
          <internalNodes>
            0 -1 44 5.9670906921382993e-05</internalNodes>
          <leafValues>
            2.6400855183601379e-01 -5.7331043481826782e-01</leafValues></_>
        <_>
          <internalNodes>
            0 -1 127 -1.9426643120823428e-05</internalNodes>
          <leafValues>
            -5.3419905900955200e-01 2.0168350636959076e-01</leafValues></_>
        <_>
          <internalNodes>
            0 -1 53 -5.4551404900848866e-04</internalNodes>
          <leafValues>
            5.0099176168441772e-01 -2.9450565576553345e-01</leafValues></_>
        <_>
          <internalNodes>
            0 -1 43 4.6134641161188483e-04</internalNodes>
          <leafValues>
            -2.6002863049507141e-01 4.6842947602272034e-01</leafValues></_>
        <_>
          <internalNodes>
            0 -1 129 -7.1269087493419647e-03</internalNodes>
          <leafValues>
            -6.0457903146743774e-01 2.2115117311477661e-01</leafValues></_>
        <_>
          <internalNodes>
            0 -1 33 1.6800060868263245e-01</internalNodes>
          <leafValues>
            7.1710921823978424e-02 -1.</leafValues></_>
        <_>
          <internalNodes>
            0 -1 106 -8.0370664363726974e-06</internalNodes>
          <leafValues>
            -4.9207034707069397e-01 2.2352357208728790e-01</leafValues></_>
        <_>
          <internalNodes>
            0 -1 24 1.4983655419200659e-03</internalNodes>
          <leafValues>
            -3.8877642154693604e-01 3.1169819831848145e-01</leafValues></_></weakClassifiers></_>
    <!-- stage 9 -->
    <_>
      <maxWeakCount>9</maxWeakCount>
      <stageThreshold>-1.1042164564132690e+00</stageThreshold>
      <weakClassifiers>
        <_>
          <internalNodes>
            0 -1 80 4.8508454114198685e-02</internalNodes>
          <leafValues>
            -6.7474049329757690e-01 -2.0080320537090302e-02</leafValues></_>
        <_>
          <internalNodes>
            0 -1 121 5.2756201475858688e-03</internalNodes>
          <leafValues>
            -3.3107981085777283e-01 3.8594183325767517e-01</leafValues></_>
        <_>
          <internalNodes>
            0 -1 51 1.0598503053188324e-02</internalNodes>
          <leafValues>
            1.4394460618495941e-01 -8.6672616004943848e-01</leafValues></_>
        <_>
          <internalNodes>
            0 -1 76 -1.6965856775641441e-03</internalNodes>
          <leafValues>
            5.1844263076782227e-01 -1.9060444831848145e-01</leafValues></_>
        <_>
          <internalNodes>
            0 -1 13 2.3331209085881710e-03</internalNodes>
          <leafValues>
            1.9606712460517883e-01 -5.7401496171951294e-01</leafValues></_>
        <_>
          <internalNodes>
            0 -1 96 -7.8207915066741407e-05</internalNodes>
          <leafValues>
            -5.1674604415893555e-01 1.8343661725521088e-01</leafValues></_>
        <_>
          <internalNodes>
            0 -1 116 -1.1122517753392458e-03</internalNodes>
          <leafValues>
            -9.4628858566284180e-01 1.4500117301940918e-01</leafValues></_>
        <_>
          <internalNodes>
            0 -1 46 -3.5411808639764786e-03</internalNodes>
          <leafValues>
            6.2666416168212891e-01 -2.3808230459690094e-01</leafValues></_>
        <_>
          <internalNodes>
            0 -1 120 8.3499717220547609e-06</internalNodes>
          <leafValues>
            -3.3815890550613403e-01 3.6593985557556152e-01</leafValues></_></weakClassifiers></_>
    <!-- stage 10 -->
    <_>
      <maxWeakCount>11</maxWeakCount>
      <stageThreshold>-1.3237991333007813e+00</stageThreshold>
      <weakClassifiers>
        <_>
          <internalNodes>
            0 -1 5 -2.7182351797819138e-02</internalNodes>
          <leafValues>
            -3.5294119268655777e-02 -6.7491167783737183e-01</leafValues></_>
        <_>
          <internalNodes>
            0 -1 105 1.5398123650811613e-04</internalNodes>
          <leafValues>
            1.6661331057548523e-01 -5.5473631620407104e-01</leafValues></_>
        <_>
          <internalNodes>
            0 -1 104 1.1164721217937768e-04</internalNodes>
          <leafValues>
            -3.8512465357780457e-01 2.9463580250740051e-01</leafValues></_>
        <_>
          <internalNodes>
            0 -1 18 2.4379126261919737e-04</internalNodes>
          <leafValues>
            1.6832131147384644e-01 -7.4330526590347290e-01</leafValues></_>
        <_>
          <internalNodes>
            0 -1 98 1.1100075789727271e-04</internalNodes>
          <leafValues>
            -4.1102954745292664e-01 3.0616715550422668e-01</leafValues></_>
        <_>
          <internalNodes>
            0 -1 55 -9.6360963652841747e-05</internalNodes>
          <leafValues>
            4.6865671873092651e-01 -2.7057477831840515e-01</leafValues></_>
        <_>
          <internalNodes>
            0 -1 21 7.4359495192766190e-03</internalNodes>
          <leafValues>
            1.5264004468917847e-01 -7.3745739459991455e-01</leafValues></_>
        <_>
          <internalNodes>
            0 -1 88 1.8567250663181767e-05</internalNodes>
          <leafValues>
            -3.3556118607521057e-01 3.5599097609519958e-01</leafValues></_>
        <_>
          <internalNodes>
            0 -1 23 -1.4882031246088445e-04</internalNodes>
          <leafValues>
            3.6963111162185669e-01 -2.8976893424987793e-01</leafValues></_>
        <_>
          <internalNodes>
            0 -1 114 -3.0798788066022098e-04</internalNodes>
          <leafValues>
            -6.3485288619995117e-01 1.6420127451419830e-01</leafValues></_>
        <_>
          <internalNodes>
            0 -1 37 -1.1257196310907602e-03</internalNodes>
          <leafValues>
            5.2711260318756104e-01 -2.6610371470451355e-01</leafValues></_></weakClassifiers></_>
    <!-- stage 11 -->
    <_>
      <maxWeakCount>9</maxWeakCount>
      <stageThreshold>-8.3180266618728638e-01</stageThreshold>
      <weakClassifiers>
        <_>
          <internalNodes>
            0 -1 7 -1.7415642738342285e-02</internalNodes>
          <leafValues>
            4.6666666865348816e-01 -4.7698745131492615e-01</leafValues></_>
        <_>
          <internalNodes>
            0 -1 50 -2.7777718059951439e-05</internalNodes>
          <leafValues>
            -5.9628796577453613e-01 1.5672034025192261e-01</leafValues></_>
        <_>
          <internalNodes>
            0 -1 50 4.0989267290569842e-05</internalNodes>
          <leafValues>
            1.7110700905323029e-01 -5.8357220888137817e-01</leafValues></_>
        <_>
          <internalNodes>
            0 -1 128 -5.7596666010795161e-05</internalNodes>
          <leafValues>
            -4.0036857128143311e-01 2.3148304224014282e-01</leafValues></_>
        <_>
          <internalNodes>
            0 -1 125 -3.0667457729578018e-02</internalNodes>
          <leafValues>
            -8.1184899806976318e-01 1.5200126171112061e-01</leafValues></_>
        <_>
          <internalNodes>
            0 -1 19 1.8607057631015778e-02</internalNodes>
          <leafValues>
            -2.0158900320529938e-01 5.9366977214813232e-01</leafValues></_>
        <_>
          <internalNodes>
            0 -1 29 -1.0312076483387500e-04</internalNodes>
          <leafValues>
            -5.1880013942718506e-01 2.2809630632400513e-01</leafValues></_>
        <_>
          <internalNodes>
            0 -1 118 1.9284541485831141e-03</internalNodes>
          <leafValues>
            -1.7455367743968964e-01 5.8551037311553955e-01</leafValues></_>
        <_>
          <internalNodes>
            0 -1 111 1.8456760793924332e-02</internalNodes>
          <leafValues>
            -1.6340127587318420e-01 6.5694856643676758e-01</leafValues></_></weakClassifiers></_>
    <!-- stage 12 -->
    <_>
      <maxWeakCount>11</maxWeakCount>
      <stageThreshold>-1.1184649467468262e+00</stageThreshold>
      <weakClassifiers>
        <_>
          <internalNodes>
            0 -1 20 -1.1617548018693924e-01</internalNodes>
          <leafValues>
            1.1111111193895340e-01 -5.6363636255264282e-01</leafValues></_>
        <_>
          <internalNodes>
            0 -1 130 2.4807662703096867e-03</internalNodes>
          <leafValues>
            1.6986371576786041e-01 -6.2175232172012329e-01</leafValues></_>
        <_>
          <internalNodes>
            0 -1 119 6.3387560658156872e-04</internalNodes>
          <leafValues>
            1.0133930295705795e-01 -8.4607529640197754e-01</leafValues></_>
        <_>
          <internalNodes>
            0 -1 91 -7.2308222297579050e-04</internalNodes>
          <leafValues>
            4.0708482265472412e-01 -2.8192204236984253e-01</leafValues></_>
        <_>
          <internalNodes>
            0 -1 38 -2.7397036319598556e-05</internalNodes>
          <leafValues>
            -4.9919539690017700e-01 1.9720397889614105e-01</leafValues></_>
        <_>
          <internalNodes>
            0 -1 64 2.7972605312243104e-04</internalNodes>
          <leafValues>
            -2.2685523331165314e-01 4.9813836812973022e-01</leafValues></_>
        <_>
          <internalNodes>
            0 -1 70 -7.7130258083343506e-02</internalNodes>
          <leafValues>
            5.6624644994735718e-01 -2.0778098702430725e-01</leafValues></_>
        <_>
          <internalNodes>
            0 -1 68 -5.4832693422213197e-05</internalNodes>
          <leafValues>
            -4.9192896485328674e-01 2.4983406066894531e-01</leafValues></_>
        <_>
          <internalNodes>
            0 -1 72 4.8809703439474106e-03</internalNodes>
          <leafValues>
            -3.2885900139808655e-01 4.5378428697586060e-01</leafValues></_>
        <_>
          <internalNodes>
            0 -1 67 2.1430436754599214e-04</internalNodes>
          <leafValues>
            1.7325308918952942e-01 -8.8616383075714111e-01</leafValues></_>
        <_>
          <internalNodes>
            0 -1 63 5.3836665756534785e-05</internalNodes>
          <leafValues>
            -2.8403681516647339e-01 5.3335970640182495e-01</leafValues></_></weakClassifiers></_>
    <!-- stage 13 -->
    <_>
      <maxWeakCount>12</maxWeakCount>
      <stageThreshold>-1.0663143396377563e+00</stageThreshold>
      <weakClassifiers>
        <_>
          <internalNodes>
            0 -1 74 -2.9214516282081604e-01</internalNodes>
          <leafValues>
            2.5925925374031067e-01 -5.3023254871368408e-01</leafValues></_>
        <_>
          <internalNodes>
            0 -1 25 6.3368445262312889e-03</internalNodes>
          <leafValues>
            7.7353775501251221e-02 -8.6386120319366455e-01</leafValues></_>
        <_>
          <internalNodes>
            0 -1 40 -5.6533664464950562e-03</internalNodes>
          <leafValues>
            6.5935176610946655e-01 -1.6454890370368958e-01</leafValues></_>
        <_>
          <internalNodes>
            0 -1 95 -2.0605605095624924e-02</internalNodes>
          <leafValues>
            6.5778034925460815e-01 -1.7332682013511658e-01</leafValues></_>
        <_>
          <internalNodes>
            0 -1 48 4.5729232951998711e-03</internalNodes>
          <leafValues>
            -1.6328272223472595e-01 4.6841675043106079e-01</leafValues></_>
        <_>
          <internalNodes>
            0 -1 123 1.9966186300734989e-05</internalNodes>
          <leafValues>
            1.6136212646961212e-01 -5.2415877580642700e-01</leafValues></_>
        <_>
          <internalNodes>
            0 -1 97 6.3574803061783314e-04</internalNodes>
          <leafValues>
            -2.2535324096679688e-01 4.7455957531929016e-01</leafValues></_>
        <_>
          <internalNodes>
            0 -1 27 -1.0800853371620178e-01</internalNodes>
          <leafValues>
            5.7186591625213623e-01 -1.6566956043243408e-01</leafValues></_>
        <_>
          <internalNodes>
            0 -1 82 9.4586081104353070e-05</internalNodes>
          <leafValues>
            2.5650718808174133e-01 -4.1251924633979797e-01</leafValues></_>
        <_>
          <internalNodes>
            0 -1 30 -1.3183188857510686e-03</internalNodes>
          <leafValues>
            4.7574865818023682e-01 -2.4498388171195984e-01</leafValues></_>
        <_>
          <internalNodes>
            0 -1 112 -8.2096247933804989e-04</internalNodes>
          <leafValues>
            4.5117491483688354e-01 -2.6101353764533997e-01</leafValues></_>
        <_>
          <internalNodes>
            0 -1 113 -8.9610228314995766e-05</internalNodes>
          <leafValues>
            3.6687377095222473e-01 -2.9608464241027832e-01</leafValues></_></weakClassifiers></_>
    <!-- stage 14 -->
    <_>
      <maxWeakCount>11</maxWeakCount>
      <stageThreshold>-1.4784890413284302e+00</stageThreshold>
      <weakClassifiers>
        <_>
          <internalNodes>
            0 -1 79 7.2848796844482422e-02</internalNodes>
          <leafValues>
            -5.9249329566955566e-01 1.2727272510528564e-01</leafValues></_>
        <_>
          <internalNodes>
            0 -1 0 3.1010441482067108e-02</internalNodes>
          <leafValues>
            1.2780945003032684e-01 -6.3415980339050293e-01</leafValues></_>
        <_>
          <internalNodes>
            0 -1 77 4.1909635183401406e-04</internalNodes>
          <leafValues>
            -2.7705040574073792e-01 3.7171614170074463e-01</leafValues></_>
        <_>
          <internalNodes>
            0 -1 108 3.8837490137666464e-04</internalNodes>
          <leafValues>
            2.1107697486877441e-01 -5.9551030397415161e-01</leafValues></_>
        <_>
          <internalNodes>
            0 -1 60 1.4826387632638216e-03</internalNodes>
          <leafValues>
            -2.6151594519615173e-01 4.9906122684478760e-01</leafValues></_>
        <_>
          <internalNodes>
            0 -1 73 -4.4458021875470877e-04</internalNodes>
          <leafValues>
            4.8968479037284851e-01 -2.2351787984371185e-01</leafValues></_>
        <_>
          <internalNodes>
            0 -1 42 -2.3385701933875680e-04</internalNodes>
          <leafValues>
            -5.3578358888626099e-01 2.0423705875873566e-01</leafValues></_>
        <_>
          <internalNodes>
            0 -1 110 -4.1347010992467403e-03</internalNodes>
          <leafValues>
            4.4562587141990662e-01 -2.6379337906837463e-01</leafValues></_>
        <_>
          <internalNodes>
            0 -1 90 -4.3474130507092923e-05</internalNodes>
          <leafValues>
            3.5171127319335938e-01 -3.2568445801734924e-01</leafValues></_>
        <_>
          <internalNodes>
            0 -1 85 1.3753783423453569e-03</internalNodes>
          <leafValues>
            -2.3497447371482849e-01 4.6904781460762024e-01</leafValues></_>
        <_>
          <internalNodes>
            0 -1 94 3.1951996497809887e-03</internalNodes>
          <leafValues>
            1.5741731226444244e-01 -6.7949682474136353e-01</leafValues></_></weakClassifiers></_></stages>
  <features>
    <_>
      <rects>
        <_>
          0 0 5 24 -1.</_>
        <_>
          0 12 5 12 2.</_></rects>
      <tilted>0</tilted></_>
    <_>
      <rects>
        <_>
          0 0 34 24 -1.</_>
        <_>
          0 8 34 8 3.</_></rects>
      <tilted>0</tilted></_>
    <_>
      <rects>
        <_>
          0 1 4 3 -1.</_>
        <_>
          0 2 4 1 3.</_></rects>
      <tilted>0</tilted></_>
    <_>
      <rects>
        <_>
          0 1 36 21 -1.</_>
        <_>
          12 1 12 21 3.</_></rects>
      <tilted>0</tilted></_>
    <_>
      <rects>
        <_>
          0 2 10 2 -1.</_>
        <_>
          5 2 5 2 2.</_></rects>
      <tilted>0</tilted></_>
    <_>
      <rects>
        <_>
          0 3 14 10 -1.</_>
        <_>
          7 3 7 10 2.</_></rects>
      <tilted>0</tilted></_>
    <_>
      <rects>
        <_>
          0 4 4 16 -1.</_>
        <_>
          2 4 2 16 2.</_></rects>
      <tilted>0</tilted></_>
    <_>
      <rects>
        <_>
          0 7 10 6 -1.</_>
        <_>
          0 7 5 3 2.</_>
        <_>
          5 10 5 3 2.</_></rects>
      <tilted>0</tilted></_>
    <_>
      <rects>
        <_>
          0 7 10 7 -1.</_>
        <_>
          5 7 5 7 2.</_></rects>
      <tilted>0</tilted></_>
    <_>
      <rects>
        <_>
          0 10 18 9 -1.</_>
        <_>
          6 10 6 9 3.</_></rects>
      <tilted>0</tilted></_>
    <_>
      <rects>
        <_>
          0 11 10 7 -1.</_>
        <_>
          5 11 5 7 2.</_></rects>
      <tilted>0</tilted></_>
    <_>
      <rects>
        <_>
          0 12 31 12 -1.</_>
        <_>
          0 16 31 4 3.</_></rects>
      <tilted>0</tilted></_>
    <_>
      <rects>
        <_>
          0 14 30 6 -1.</_>
        <_>
          0 16 30 2 3.</_></rects>
      <tilted>0</tilted></_>
    <_>
      <rects>
        <_>
          0 17 1 6 -1.</_>
        <_>
          0 20 1 3 2.</_></rects>
      <tilted>0</tilted></_>
    <_>
      <rects>
        <_>
          0 18 1 6 -1.</_>
        <_>
          0 20 1 2 3.</_></rects>
      <tilted>0</tilted></_>
    <_>
      <rects>
        <_>
          0 22 3 2 -1.</_>
        <_>
          1 22 1 2 3.</_></rects>
      <tilted>0</tilted></_>
    <_>
      <rects>
        <_>
          0 22 12 2 -1.</_>
        <_>
          6 22 6 2 2.</_></rects>
      <tilted>0</tilted></_>
    <_>
      <rects>
        <_>
          0 23 6 1 -1.</_>
        <_>
          3 23 3 1 2.</_></rects>
      <tilted>0</tilted></_>
    <_>
      <rects>
        <_>
          1 0 6 1 -1.</_>
        <_>
          3 0 2 1 3.</_></rects>
      <tilted>0</tilted></_>
    <_>
      <rects>
        <_>
          1 0 22 6 -1.</_>
        <_>
          1 0 11 3 2.</_>
        <_>
          12 3 11 3 2.</_></rects>
      <tilted>0</tilted></_>
    <_>
      <rects>
        <_>
          1 0 34 8 -1.</_>
        <_>
          1 4 34 4 2.</_></rects>
      <tilted>0</tilted></_>
    <_>
      <rects>
        <_>
          1 1 2 14 -1.</_>
        <_>
          1 8 2 7 2.</_></rects>
      <tilted>0</tilted></_>
    <_>
      <rects>
        <_>
          1 1 34 6 -1.</_>
        <_>
          1 3 34 2 3.</_></rects>
      <tilted>0</tilted></_>
    <_>
      <rects>
        <_>
          1 13 2 10 -1.</_>
        <_>
          2 13 1 10 2.</_></rects>
      <tilted>0</tilted></_>
    <_>
      <rects>
        <_>
          1 20 12 4 -1.</_>
        <_>
          1 22 12 2 2.</_></rects>
      <tilted>0</tilted></_>
    <_>
      <rects>
        <_>
          1 22 12 2 -1.</_>
        <_>
          7 22 6 2 2.</_></rects>
      <tilted>0</tilted></_>
    <_>
      <rects>
        <_>
          2 0 9 1 -1.</_>
        <_>
          5 0 3 1 3.</_></rects>
      <tilted>0</tilted></_>
    <_>
      <rects>
        <_>
          2 0 18 15 -1.</_>
        <_>
          11 0 9 15 2.</_></rects>
      <tilted>0</tilted></_>
    <_>
      <rects>
        <_>
          3 0 8 1 -1.</_>
        <_>
          7 0 4 1 2.</_></rects>
      <tilted>0</tilted></_>
    <_>
      <rects>
        <_>
          3 0 10 1 -1.</_>
        <_>
          8 0 5 1 2.</_></rects>
      <tilted>0</tilted></_>
    <_>
      <rects>
        <_>
          3 10 16 2 -1.</_>
        <_>
          3 10 8 1 2.</_>
        <_>
          11 11 8 1 2.</_></rects>
      <tilted>0</tilted></_>
    <_>
      <rects>
        <_>
          4 0 27 4 -1.</_>
        <_>
          4 2 27 2 2.</_></rects>
      <tilted>0</tilted></_>
    <_>
      <rects>
        <_>
          5 0 4 1 -1.</_>
        <_>
          7 0 2 1 2.</_></rects>
      <tilted>0</tilted></_>
    <_>
      <rects>
        <_>
          5 0 13 24 -1.</_>
        <_>
          5 12 13 12 2.</_></rects>
      <tilted>0</tilted></_>
    <_>
      <rects>
        <_>
          5 0 24 3 -1.</_>
        <_>
          5 1 24 1 3.</_></rects>
      <tilted>0</tilted></_>
    <_>
      <rects>
        <_>
          5 9 6 3 -1.</_>
        <_>
          8 9 3 3 2.</_></rects>
      <tilted>0</tilted></_>
    <_>
      <rects>
        <_>
          5 14 15 10 -1.</_>
        <_>
          5 19 15 5 2.</_></rects>
      <tilted>0</tilted></_>
    <_>
      <rects>
        <_>
          5 18 6 3 -1.</_>
        <_>
          5 19 6 1 3.</_></rects>
      <tilted>0</tilted></_>
    <_>
      <rects>
        <_>
          5 23 6 1 -1.</_>
        <_>
          7 23 2 1 3.</_></rects>
      <tilted>0</tilted></_>
    <_>
      <rects>
        <_>
          6 0 4 1 -1.</_>
        <_>
          8 0 2 1 2.</_></rects>
      <tilted>0</tilted></_>
    <_>
      <rects>
        <_>
          6 0 16 3 -1.</_>
        <_>
          6 1 16 1 3.</_></rects>
      <tilted>0</tilted></_>
    <_>
      <rects>
        <_>
          6 4 30 13 -1.</_>
        <_>
          21 4 15 13 2.</_></rects>
      <tilted>0</tilted></_>
    <_>
      <rects>
        <_>
          6 23 12 1 -1.</_>
        <_>
          10 23 4 1 3.</_></rects>
      <tilted>0</tilted></_>
    <_>
      <rects>
        <_>
          7 8 4 3 -1.</_>
        <_>
          7 9 4 1 3.</_></rects>
      <tilted>0</tilted></_>
    <_>
      <rects>
        <_>
          7 23 6 1 -1.</_>
        <_>
          9 23 2 1 3.</_></rects>
      <tilted>0</tilted></_>
    <_>
      <rects>
        <_>
          7 23 10 1 -1.</_>
        <_>
          12 23 5 1 2.</_></rects>
      <tilted>0</tilted></_>
    <_>
      <rects>
        <_>
          8 1 11 3 -1.</_>
        <_>
          8 2 11 1 3.</_></rects>
      <tilted>0</tilted></_>
    <_>
      <rects>
        <_>
          8 15 3 1 -1.</_>
        <_>
          9 15 1 1 3.</_></rects>
      <tilted>0</tilted></_>
    <_>
      <rects>
        <_>
          8 20 4 4 -1.</_>
        <_>
          8 22 4 2 2.</_></rects>
      <tilted>0</tilted></_>
    <_>
      <rects>
        <_>
          8 22 18 2 -1.</_>
        <_>
          8 23 18 1 2.</_></rects>
      <tilted>0</tilted></_>
    <_>
      <rects>
        <_>
          8 23 3 1 -1.</_>
        <_>
          9 23 1 1 3.</_></rects>
      <tilted>0</tilted></_>
    <_>
      <rects>
        <_>
          8 23 28 1 -1.</_>
        <_>
          22 23 14 1 2.</_></rects>
      <tilted>0</tilted></_>
    <_>
      <rects>
        <_>
          9 6 6 3 -1.</_>
        <_>
          9 7 6 1 3.</_></rects>
      <tilted>0</tilted></_>
    <_>
      <rects>
        <_>
          9 8 2 3 -1.</_>
        <_>
          9 9 2 1 3.</_></rects>
      <tilted>0</tilted></_>
    <_>
      <rects>
        <_>
          9 11 6 9 -1.</_>
        <_>
          9 14 6 3 3.</_></rects>
      <tilted>0</tilted></_>
    <_>
      <rects>
        <_>
          9 13 1 2 -1.</_>
        <_>
          9 14 1 1 2.</_></rects>
      <tilted>0</tilted></_>
    <_>
      <rects>
        <_>
          9 18 6 6 -1.</_>
        <_>
          9 21 6 3 2.</_></rects>
      <tilted>0</tilted></_>
    <_>
      <rects>
        <_>
          9 23 4 1 -1.</_>
        <_>
          11 23 2 1 2.</_></rects>
      <tilted>0</tilted></_>
    <_>
      <rects>
        <_>
          10 0 21 8 -1.</_>
        <_>
          10 4 21 4 2.</_></rects>
      <tilted>0</tilted></_>
    <_>
      <rects>
        <_>
          10 1 24 8 -1.</_>
        <_>
          10 5 24 4 2.</_></rects>
      <tilted>0</tilted></_>
    <_>
      <rects>
        <_>
          10 4 16 1 -1.</_>
        <_>
          18 4 8 1 2.</_></rects>
      <tilted>0</tilted></_>
    <_>
      <rects>
        <_>
          10 8 8 3 -1.</_>
        <_>
          10 9 8 1 3.</_></rects>
      <tilted>0</tilted></_>
    <_>
      <rects>
        <_>
          11 0 2 1 -1.</_>
        <_>
          12 0 1 1 2.</_></rects>
      <tilted>0</tilted></_>
    <_>
      <rects>
        <_>
          11 8 2 1 -1.</_>
        <_>
          12 8 1 1 2.</_></rects>
      <tilted>0</tilted></_>
    <_>
      <rects>
        <_>
          11 9 2 2 -1.</_>
        <_>
          11 10 2 1 2.</_></rects>
      <tilted>0</tilted></_>
    <_>
      <rects>
        <_>
          11 14 24 10 -1.</_>
        <_>
          11 19 24 5 2.</_></rects>
      <tilted>0</tilted></_>
    <_>
      <rects>
        <_>
          11 16 3 1 -1.</_>
        <_>
          12 16 1 1 3.</_></rects>
      <tilted>0</tilted></_>
    <_>
      <rects>
        <_>
          12 0 2 1 -1.</_>
        <_>
          13 0 1 1 2.</_></rects>
      <tilted>0</tilted></_>
    <_>
      <rects>
        <_>
          12 0 9 1 -1.</_>
        <_>
          15 0 3 1 3.</_></rects>
      <tilted>0</tilted></_>
    <_>
      <rects>
        <_>
          12 0 12 2 -1.</_>
        <_>
          12 1 12 1 2.</_></rects>
      <tilted>0</tilted></_>
    <_>
      <rects>
        <_>
          12 5 24 9 -1.</_>
        <_>
          20 5 8 9 3.</_></rects>
      <tilted>0</tilted></_>
    <_>
      <rects>
        <_>
          12 9 5 3 -1.</_>
        <_>
          12 10 5 1 3.</_></rects>
      <tilted>0</tilted></_>
    <_>
      <rects>
        <_>
          12 22 24 2 -1.</_>
        <_>
          12 23 24 1 2.</_></rects>
      <tilted>0</tilted></_>
    <_>
      <rects>
        <_>
          13 11 1 3 -1.</_>
        <_>
          13 12 1 1 3.</_></rects>
      <tilted>0</tilted></_>
    <_>
      <rects>
        <_>
          14 0 15 24 -1.</_>
        <_>
          14 8 15 8 3.</_></rects>
      <tilted>0</tilted></_>
    <_>
      <rects>
        <_>
          14 1 18 8 -1.</_>
        <_>
          14 5 18 4 2.</_></rects>
      <tilted>0</tilted></_>
    <_>
      <rects>
        <_>
          14 4 3 9 -1.</_>
        <_>
          15 4 1 9 3.</_></rects>
      <tilted>0</tilted></_>
    <_>
      <rects>
        <_>
          14 5 3 3 -1.</_>
        <_>
          14 6 3 1 3.</_></rects>
      <tilted>0</tilted></_>
    <_>
      <rects>
        <_>
          14 11 6 3 -1.</_>
        <_>
          16 11 2 3 3.</_></rects>
      <tilted>0</tilted></_>
    <_>
      <rects>
        <_>
          14 14 13 10 -1.</_>
        <_>
          14 19 13 5 2.</_></rects>
      <tilted>0</tilted></_>
    <_>
      <rects>
        <_>
          14 14 20 10 -1.</_>
        <_>
          14 19 20 5 2.</_></rects>
      <tilted>0</tilted></_>
    <_>
      <rects>
        <_>
          14 22 2 2 -1.</_>
        <_>
          14 23 2 1 2.</_></rects>
      <tilted>0</tilted></_>
    <_>
      <rects>
        <_>
          14 23 14 1 -1.</_>
        <_>
          21 23 7 1 2.</_></rects>
      <tilted>0</tilted></_>
    <_>
      <rects>
        <_>
          15 0 2 1 -1.</_>
        <_>
          16 0 1 1 2.</_></rects>
      <tilted>0</tilted></_>
    <_>
      <rects>
        <_>
          15 7 5 6 -1.</_>
        <_>
          15 10 5 3 2.</_></rects>
      <tilted>0</tilted></_>
    <_>
      <rects>
        <_>
          15 12 6 6 -1.</_>
        <_>
          15 14 6 2 3.</_></rects>
      <tilted>0</tilted></_>
    <_>
      <rects>
        <_>
          15 15 5 6 -1.</_>
        <_>
          15 18 5 3 2.</_></rects>
      <tilted>0</tilted></_>
    <_>
      <rects>
        <_>
          15 22 4 2 -1.</_>
        <_>
          15 23 4 1 2.</_></rects>
      <tilted>0</tilted></_>
    <_>
      <rects>
        <_>
          16 4 1 8 -1.</_>
        <_>
          16 8 1 4 2.</_></rects>
      <tilted>0</tilted></_>
    <_>
      <rects>
        <_>
          16 22 12 2 -1.</_>
        <_>
          16 23 12 1 2.</_></rects>
      <tilted>0</tilted></_>
    <_>
      <rects>
        <_>
          17 7 2 6 -1.</_>
        <_>
          17 7 1 3 2.</_>
        <_>
          18 10 1 3 2.</_></rects>
      <tilted>0</tilted></_>
    <_>
      <rects>
        <_>
          17 8 11 2 -1.</_>
        <_>
          17 9 11 1 2.</_></rects>
      <tilted>0</tilted></_>
    <_>
      <rects>
        <_>
          17 11 2 2 -1.</_>
        <_>
          18 11 1 2 2.</_></rects>
      <tilted>0</tilted></_>
    <_>
      <rects>
        <_>
          17 23 12 1 -1.</_>
        <_>
          21 23 4 1 3.</_></rects>
      <tilted>0</tilted></_>
    <_>
      <rects>
        <_>
          18 0 12 2 -1.</_>
        <_>
          22 0 4 2 3.</_></rects>
      <tilted>0</tilted></_>
    <_>
      <rects>
        <_>
          18 0 5 9 -1.</_>
        <_>
          18 3 5 3 3.</_></rects>
      <tilted>0</tilted></_>
    <_>
      <rects>
        <_>
          18 23 15 1 -1.</_>
        <_>
          23 23 5 1 3.</_></rects>
      <tilted>0</tilted></_>
    <_>
      <rects>
        <_>
          19 8 2 3 -1.</_>
        <_>
          19 9 2 1 3.</_></rects>
      <tilted>0</tilted></_>
    <_>
      <rects>
        <_>
          19 16 1 4 -1.</_>
        <_>
          19 18 1 2 2.</_></rects>
      <tilted>0</tilted></_>
    <_>
      <rects>
        <_>
          20 0 12 1 -1.</_>
        <_>
          24 0 4 1 3.</_></rects>
      <tilted>0</tilted></_>
    <_>
      <rects>
        <_>
          20 0 5 8 -1.</_>
        <_>
          20 4 5 4 2.</_></rects>
      <tilted>0</tilted></_>
    <_>
      <rects>
        <_>
          20 0 14 1 -1.</_>
        <_>
          27 0 7 1 2.</_></rects>
      <tilted>0</tilted></_>
    <_>
      <rects>
        <_>
          20 7 4 1 -1.</_>
        <_>
          22 7 2 1 2.</_></rects>
      <tilted>0</tilted></_>
    <_>
      <rects>
        <_>
          21 4 13 6 -1.</_>
        <_>
          21 6 13 2 3.</_></rects>
      <tilted>0</tilted></_>
    <_>
      <rects>
        <_>
          21 15 4 4 -1.</_>
        <_>
          23 15 2 4 2.</_></rects>
      <tilted>0</tilted></_>
    <_>
      <rects>
        <_>
          22 0 8 1 -1.</_>
        <_>
          26 0 4 1 2.</_></rects>
      <tilted>0</tilted></_>
    <_>
      <rects>
        <_>
          23 23 6 1 -1.</_>
        <_>
          25 23 2 1 3.</_></rects>
      <tilted>0</tilted></_>
    <_>
      <rects>
        <_>
          24 11 12 13 -1.</_>
        <_>
          30 11 6 13 2.</_></rects>
      <tilted>0</tilted></_>
    <_>
      <rects>
        <_>
          24 23 9 1 -1.</_>
        <_>
          27 23 3 1 3.</_></rects>
      <tilted>0</tilted></_>
    <_>
      <rects>
        <_>
          25 0 6 1 -1.</_>
        <_>
          28 0 3 1 2.</_></rects>
      <tilted>0</tilted></_>
    <_>
      <rects>
        <_>
          25 0 11 4 -1.</_>
        <_>
          25 2 11 2 2.</_></rects>
      <tilted>0</tilted></_>
    <_>
      <rects>
        <_>
          25 5 10 3 -1.</_>
        <_>
          30 5 5 3 2.</_></rects>
      <tilted>0</tilted></_>
    <_>
      <rects>
        <_>
          25 8 7 3 -1.</_>
        <_>
          25 9 7 1 3.</_></rects>
      <tilted>0</tilted></_>
    <_>
      <rects>
        <_>
          25 13 6 2 -1.</_>
        <_>
          25 13 3 1 2.</_>
        <_>
          28 14 3 1 2.</_></rects>
      <tilted>0</tilted></_>
    <_>
      <rects>
        <_>
          26 0 4 2 -1.</_>
        <_>
          28 0 2 2 2.</_></rects>
      <tilted>0</tilted></_>
    <_>
      <rects>
        <_>
          26 8 10 8 -1.</_>
        <_>
          31 8 5 8 2.</_></rects>
      <tilted>0</tilted></_>
    <_>
      <rects>
        <_>
          26 23 4 1 -1.</_>
        <_>
          28 23 2 1 2.</_></rects>
      <tilted>0</tilted></_>
    <_>
      <rects>
        <_>
          27 0 9 24 -1.</_>
        <_>
          27 12 9 12 2.</_></rects>
      <tilted>0</tilted></_>
    <_>
      <rects>
        <_>
          27 20 5 3 -1.</_>
        <_>
          27 21 5 1 3.</_></rects>
      <tilted>0</tilted></_>
    <_>
      <rects>
        <_>
          28 0 6 1 -1.</_>
        <_>
          30 0 2 1 3.</_></rects>
      <tilted>0</tilted></_>
    <_>
      <rects>
        <_>
          30 12 6 9 -1.</_>
        <_>
          30 15 6 3 3.</_></rects>
      <tilted>0</tilted></_>
    <_>
      <rects>
        <_>
          32 4 4 10 -1.</_>
        <_>
          34 4 2 10 2.</_></rects>
      <tilted>0</tilted></_>
    <_>
      <rects>
        <_>
          32 20 4 2 -1.</_>
        <_>
          34 20 2 2 2.</_></rects>
      <tilted>0</tilted></_>
    <_>
      <rects>
        <_>
          33 0 3 2 -1.</_>
        <_>
          34 0 1 2 3.</_></rects>
      <tilted>0</tilted></_>
    <_>
      <rects>
        <_>
          33 20 2 2 -1.</_>
        <_>
          33 20 1 1 2.</_>
        <_>
          34 21 1 1 2.</_></rects>
      <tilted>0</tilted></_>
    <_>
      <rects>
        <_>
          34 0 2 24 -1.</_>
        <_>
          34 12 2 12 2.</_></rects>
      <tilted>0</tilted></_>
    <_>
      <rects>
        <_>
          34 1 2 20 -1.</_>
        <_>
          34 11 2 10 2.</_></rects>
      <tilted>0</tilted></_>
    <_>
      <rects>
        <_>
          34 15 2 9 -1.</_>
        <_>
          35 15 1 9 2.</_></rects>
      <tilted>0</tilted></_>
    <_>
      <rects>
        <_>
          35 0 1 6 -1.</_>
        <_>
          35 3 1 3 2.</_></rects>
      <tilted>0</tilted></_>
    <_>
      <rects>
        <_>
          35 0 1 24 -1.</_>
        <_>
          35 12 1 12 2.</_></rects>
      <tilted>0</tilted></_>
    <_>
      <rects>
        <_>
          35 2 1 20 -1.</_>
        <_>
          35 12 1 10 2.</_></rects>
      <tilted>0</tilted></_></features></cascade>
</opencv_storage>
