<?xml version="1.0"?>
<opencv_storage>
<stage12>
  <maxWeakCount>11</maxWeakCount>
  <stageThreshold>-1.1184649467468262e+00</stageThreshold>
  <weakClassifiers>
    <_>
      <internalNodes>
        0 -1 21630 -1.1617548018693924e-01</internalNodes>
      <leafValues>
        1.1111111193895340e-01 -5.6363636255264282e-01</leafValues></_>
    <_>
      <internalNodes>
        0 -1 363850 2.4807662703096867e-03</internalNodes>
      <leafValues>
        1.6986371576786041e-01 -6.2175232172012329e-01</leafValues></_>
    <_>
      <internalNodes>
        0 -1 345814 6.3387560658156872e-04</internalNodes>
      <leafValues>
        1.0133930295705795e-01 -8.4607529640197754e-01</leafValues></_>
    <_>
      <internalNodes>
        0 -1 268262 -7.2308222297579050e-04</internalNodes>
      <leafValues>
        4.0708482265472412e-01 -2.8192204236984253e-01</leafValues></_>
    <_>
      <internalNodes>
        0 -1 110870 -2.7397036319598556e-05</internalNodes>
      <leafValues>
        -4.9919539690017700e-01 1.9720397889614105e-01</leafValues></_>
    <_>
      <internalNodes>
        0 -1 196399 2.7972605312243104e-04</internalNodes>
      <leafValues>
        -2.2685523331165314e-01 4.9813836812973022e-01</leafValues></_>
    <_>
      <internalNodes>
        0 -1 207154 -7.7130258083343506e-02</internalNodes>
      <leafValues>
        5.6624644994735718e-01 -2.0778098702430725e-01</leafValues></_>
    <_>
      <internalNodes>
        0 -1 201858 -5.4832693422213197e-05</internalNodes>
      <leafValues>
        -4.9192896485328674e-01 2.4983406066894531e-01</leafValues></_>
    <_>
      <internalNodes>
        0 -1 215067 4.8809703439474106e-03</internalNodes>
      <leafValues>
        -3.2885900139808655e-01 4.5378428697586060e-01</leafValues></_>
    <_>
      <internalNodes>
        0 -1 201696 2.1430436754599214e-04</internalNodes>
      <leafValues>
        1.7325308918952942e-01 -8.8616383075714111e-01</leafValues></_>
    <_>
      <internalNodes>
        0 -1 195608 5.3836665756534785e-05</internalNodes>
      <leafValues>
        -2.8403681516647339e-01 5.3335970640182495e-01</leafValues></_></weakClassifiers></stage12>
</opencv_storage>
