<?xml version="1.0"?>
<opencv_storage>
<stage7>
  <maxWeakCount>9</maxWeakCount>
  <stageThreshold>-1.2563827037811279e+00</stageThreshold>
  <weakClassifiers>
    <_>
      <internalNodes>
        0 -1 2551 -2.8934121131896973e-01</internalNodes>
      <leafValues>
        3.6842104792594910e-01 -6.1481481790542603e-01</leafValues></_>
    <_>
      <internalNodes>
        0 -1 291856 -1.3762458693236113e-03</internalNodes>
      <leafValues>
        2.8613856434822083e-01 -5.3215026855468750e-01</leafValues></_>
    <_>
      <internalNodes>
        0 -1 269382 -6.0416503401938826e-05</internalNodes>
      <leafValues>
        4.2245361208915710e-01 -3.4993147850036621e-01</leafValues></_>
    <_>
      <internalNodes>
        0 -1 172914 1.3277939520776272e-02</internalNodes>
      <leafValues>
        -2.6063436269760132e-01 5.3523164987564087e-01</leafValues></_>
    <_>
      <internalNodes>
        0 -1 245625 -4.9878377467393875e-04</internalNodes>
      <leafValues>
        4.2051434516906738e-01 -3.7552833557128906e-01</leafValues></_>
    <_>
      <internalNodes>
        0 -1 13477 -7.3943838477134705e-02</internalNodes>
      <leafValues>
        6.9957667589187622e-01 -1.7758907377719879e-01</leafValues></_>
    <_>
      <internalNodes>
        0 -1 188068 -2.2370104488800280e-05</internalNodes>
      <leafValues>
        -6.4070326089859009e-01 2.4760279059410095e-01</leafValues></_>
    <_>
      <internalNodes>
        0 -1 295966 2.1250679856166244e-04</internalNodes>
      <leafValues>
        -3.7964281439781189e-01 4.1204258799552917e-01</leafValues></_>
    <_>
      <internalNodes>
        0 -1 104339 6.0930622566957027e-05</internalNodes>
      <leafValues>
        -3.6662453413009644e-01 3.9901846647262573e-01</leafValues></_></weakClassifiers></stage7>
</opencv_storage>
