<?xml version="1.0"?>
<opencv_storage>
<stage13>
  <maxWeakCount>12</maxWeakCount>
  <stageThreshold>-1.0663143396377563e+00</stageThreshold>
  <weakClassifiers>
    <_>
      <internalNodes>
        0 -1 228359 -2.9214516282081604e-01</internalNodes>
      <leafValues>
        2.5925925374031067e-01 -5.3023254871368408e-01</leafValues></_>
    <_>
      <internalNodes>
        0 -1 39094 6.3368445262312889e-03</internalNodes>
      <leafValues>
        7.7353775501251221e-02 -8.6386120319366455e-01</leafValues></_>
    <_>
      <internalNodes>
        0 -1 111973 -5.6533664464950562e-03</internalNodes>
      <leafValues>
        6.5935176610946655e-01 -1.6454890370368958e-01</leafValues></_>
    <_>
      <internalNodes>
        0 -1 272745 -2.0605605095624924e-02</internalNodes>
      <leafValues>
        6.5778034925460815e-01 -1.7332682013511658e-01</leafValues></_>
    <_>
      <internalNodes>
        0 -1 158507 4.5729232951998711e-03</internalNodes>
      <leafValues>
        -1.6328272223472595e-01 4.6841675043106079e-01</leafValues></_>
    <_>
      <internalNodes>
        0 -1 361435 1.9966186300734989e-05</internalNodes>
      <leafValues>
        1.6136212646961212e-01 -5.2415877580642700e-01</leafValues></_>
    <_>
      <internalNodes>
        0 -1 287528 6.3574803061783314e-04</internalNodes>
      <leafValues>
        -2.2535324096679688e-01 4.7455957531929016e-01</leafValues></_>
    <_>
      <internalNodes>
        0 -1 39896 -1.0800853371620178e-01</internalNodes>
      <leafValues>
        5.7186591625213623e-01 -1.6566956043243408e-01</leafValues></_>
    <_>
      <internalNodes>
        0 -1 239670 9.4586081104353070e-05</internalNodes>
      <leafValues>
        2.5650718808174133e-01 -4.1251924633979797e-01</leafValues></_>
    <_>
      <internalNodes>
        0 -1 70360 -1.3183188857510686e-03</internalNodes>
      <leafValues>
        4.7574865818023682e-01 -2.4498388171195984e-01</leafValues></_>
    <_>
      <internalNodes>
        0 -1 333147 -8.2096247933804989e-04</internalNodes>
      <leafValues>
        4.5117491483688354e-01 -2.6101353764533997e-01</leafValues></_>
    <_>
      <internalNodes>
        0 -1 334320 -8.9610228314995766e-05</internalNodes>
      <leafValues>
        3.6687377095222473e-01 -2.9608464241027832e-01</leafValues></_></weakClassifiers></stage13>
</opencv_storage>
